digraph Tree {
node [shape=box] ;
0 [label="Income <= 113.5\ngini = 0.168\nsamples = 3750\nvalue = [3404, 346]"] ;
1 [label="CCAvg <= 2.95\ngini = 0.04\nsamples = 3019\nvalue = [2958, 61]"] ;
0 -> 1 [labeldistance=2.5, labelangle=45, headlabel="True"] ;
2 [label="Income <= 106.5\ngini = 0.008\nsamples = 2797\nvalue = [2786, 11]"] ;
1 -> 2 ;
3 [label="gini = 0.0\nsamples = 2722\nvalue = [2722, 0]"] ;
2 -> 3 ;
4 [label="Education <= 1.5\ngini = 0.25\nsamples = 75\nvalue = [64, 11]"] ;
2 -> 4 ;
5 [label="Family <= 3.5\ngini = 0.059\nsamples = 33\nvalue = [32, 1]"] ;
4 -> 5 ;
6 [label="gini = 0.0\nsamples = 32\nvalue = [32, 0]"] ;
5 -> 6 ;
7 [label="gini = 0.0\nsamples = 1\nvalue = [0, 1]"] ;
5 -> 7 ;
8 [label="CCAvg <= 1.65\ngini = 0.363\nsamples = 42\nvalue = [32, 10]"] ;
4 -> 8 ;
9 [label="Family <= 1.5\ngini = 0.49\nsamples = 14\nvalue = [8, 6]"] ;
8 -> 9 ;
10 [label="Education <= 2.5\ngini = 0.245\nsamples = 7\nvalue = [6, 1]"] ;
9 -> 10 ;
11 [label="CCAvg <= 0.95\ngini = 0.5\nsamples = 2\nvalue = [1, 1]"] ;
10 -> 11 ;
12 [label="gini = 0.0\nsamples = 1\nvalue = [1, 0]"] ;
11 -> 12 ;
13 [label="gini = 0.0\nsamples = 1\nvalue = [0, 1]"] ;
11 -> 13 ;
14 [label="gini = 0.0\nsamples = 5\nvalue = [5, 0]"] ;
10 -> 14 ;
15 [label="Income <= 108.5\ngini = 0.408\nsamples = 7\nvalue = [2, 5]"] ;
9 -> 15 ;
16 [label="gini = 0.0\nsamples = 1\nvalue = [1, 0]"] ;
15 -> 16 ;
17 [label="CCAvg <= 1.35\ngini = 0.278\nsamples = 6\nvalue = [1, 5]"] ;
15 -> 17 ;
18 [label="gini = 0.0\nsamples = 4\nvalue = [0, 4]"] ;
17 -> 18 ;
19 [label="CCAvg <= 1.55\ngini = 0.5\nsamples = 2\nvalue = [1, 1]"] ;
17 -> 19 ;
20 [label="gini = 0.0\nsamples = 1\nvalue = [1, 0]"] ;
19 -> 20 ;
21 [label="gini = 0.0\nsamples = 1\nvalue = [0, 1]"] ;
19 -> 21 ;
22 [label="CCAvg <= 2.45\ngini = 0.245\nsamples = 28\nvalue = [24, 4]"] ;
8 -> 22 ;
23 [label="Income <= 108.5\ngini = 0.147\nsamples = 25\nvalue = [23, 2]"] ;
22 -> 23 ;
24 [label="CCAvg <= 1.85\ngini = 0.444\nsamples = 3\nvalue = [2, 1]"] ;
23 -> 24 ;
25 [label="gini = 0.0\nsamples = 1\nvalue = [1, 0]"] ;
24 -> 25 ;
26 [label="Family <= 3.0\ngini = 0.5\nsamples = 2\nvalue = [1, 1]"] ;
24 -> 26 ;
27 [label="gini = 0.0\nsamples = 1\nvalue = [1, 0]"] ;
26 -> 27 ;
28 [label="gini = 0.0\nsamples = 1\nvalue = [0, 1]"] ;
26 -> 28 ;
29 [label="CCAvg <= 1.75\ngini = 0.087\nsamples = 22\nvalue = [21, 1]"] ;
23 -> 29 ;
30 [label="Education <= 2.5\ngini = 0.32\nsamples = 5\nvalue = [4, 1]"] ;
29 -> 30 ;
31 [label="Income <= 111.5\ngini = 0.5\nsamples = 2\nvalue = [1, 1]"] ;
30 -> 31 ;
32 [label="gini = 0.0\nsamples = 1\nvalue = [1, 0]"] ;
31 -> 32 ;
33 [label="gini = 0.0\nsamples = 1\nvalue = [0, 1]"] ;
31 -> 33 ;
34 [label="gini = 0.0\nsamples = 3\nvalue = [3, 0]"] ;
30 -> 34 ;
35 [label="gini = 0.0\nsamples = 17\nvalue = [17, 0]"] ;
29 -> 35 ;
36 [label="Family <= 1.5\ngini = 0.444\nsamples = 3\nvalue = [1, 2]"] ;
22 -> 36 ;
37 [label="gini = 0.0\nsamples = 1\nvalue = [1, 0]"] ;
36 -> 37 ;
38 [label="gini = 0.0\nsamples = 2\nvalue = [0, 2]"] ;
36 -> 38 ;
39 [label="CD Account <= 0.5\ngini = 0.349\nsamples = 222\nvalue = [172, 50]"] ;
1 -> 39 ;
40 [label="Income <= 82.5\ngini = 0.306\nsamples = 207\nvalue = [168, 39]"] ;
39 -> 40 ;
41 [label="CCAvg <= 3.55\ngini = 0.111\nsamples = 85\nvalue = [80, 5]"] ;
40 -> 41 ;
42 [label="Mortgage <= 125.0\ngini = 0.245\nsamples = 35\nvalue = [30, 5]"] ;
41 -> 42 ;
43 [label="CCAvg <= 3.45\ngini = 0.124\nsamples = 30\nvalue = [28, 2]"] ;
42 -> 43 ;
44 [label="CCAvg <= 3.3\ngini = 0.067\nsamples = 29\nvalue = [28, 1]"] ;
43 -> 44 ;
45 [label="gini = 0.0\nsamples = 24\nvalue = [24, 0]"] ;
44 -> 45 ;
46 [label="Family <= 3.0\ngini = 0.32\nsamples = 5\nvalue = [4, 1]"] ;
44 -> 46 ;
47 [label="gini = 0.0\nsamples = 1\nvalue = [0, 1]"] ;
46 -> 47 ;
48 [label="gini = 0.0\nsamples = 4\nvalue = [4, 0]"] ;
46 -> 48 ;
49 [label="gini = 0.0\nsamples = 1\nvalue = [0, 1]"] ;
43 -> 49 ;
50 [label="Income <= 68.0\ngini = 0.48\nsamples = 5\nvalue = [2, 3]"] ;
42 -> 50 ;
51 [label="gini = 0.0\nsamples = 3\nvalue = [0, 3]"] ;
50 -> 51 ;
52 [label="gini = 0.0\nsamples = 2\nvalue = [2, 0]"] ;
50 -> 52 ;
53 [label="gini = 0.0\nsamples = 50\nvalue = [50, 0]"] ;
41 -> 53 ;
54 [label="Family <= 2.5\ngini = 0.402\nsamples = 122\nvalue = [88, 34]"] ;
40 -> 54 ;
55 [label="CCAvg <= 3.95\ngini = 0.283\nsamples = 88\nvalue = [73, 15]"] ;
54 -> 55 ;
56 [label="CCAvg <= 3.85\ngini = 0.426\nsamples = 39\nvalue = [27, 12]"] ;
55 -> 56 ;
57 [label="Income <= 83.5\ngini = 0.375\nsamples = 36\nvalue = [27, 9]"] ;
56 -> 57 ;
58 [label="Education <= 2.0\ngini = 0.444\nsamples = 6\nvalue = [2, 4]"] ;
57 -> 58 ;
59 [label="gini = 0.0\nsamples = 3\nvalue = [0, 3]"] ;
58 -> 59 ;
60 [label="Mortgage <= 56.0\ngini = 0.444\nsamples = 3\nvalue = [2, 1]"] ;
58 -> 60 ;
61 [label="Family <= 1.5\ngini = 0.5\nsamples = 2\nvalue = [1, 1]"] ;
60 -> 61 ;
62 [label="gini = 0.0\nsamples = 1\nvalue = [1, 0]"] ;
61 -> 62 ;
63 [label="gini = 0.0\nsamples = 1\nvalue = [0, 1]"] ;
61 -> 63 ;
64 [label="gini = 0.0\nsamples = 1\nvalue = [1, 0]"] ;
60 -> 64 ;
65 [label="Education <= 1.5\ngini = 0.278\nsamples = 30\nvalue = [25, 5]"] ;
57 -> 65 ;
66 [label="gini = 0.0\nsamples = 14\nvalue = [14, 0]"] ;
65 -> 66 ;
67 [label="CCAvg <= 3.65\ngini = 0.43\nsamples = 16\nvalue = [11, 5]"] ;
65 -> 67 ;
68 [label="Income <= 97.0\ngini = 0.494\nsamples = 9\nvalue = [4, 5]"] ;
67 -> 68 ;
69 [label="CCAvg <= 3.2\ngini = 0.444\nsamples = 6\nvalue = [4, 2]"] ;
68 -> 69 ;
70 [label="gini = 0.0\nsamples = 3\nvalue = [3, 0]"] ;
69 -> 70 ;
71 [label="Income <= 87.0\ngini = 0.444\nsamples = 3\nvalue = [1, 2]"] ;
69 -> 71 ;
72 [label="gini = 0.0\nsamples = 1\nvalue = [1, 0]"] ;
71 -> 72 ;
73 [label="gini = 0.0\nsamples = 2\nvalue = [0, 2]"] ;
71 -> 73 ;
74 [label="gini = 0.0\nsamples = 3\nvalue = [0, 3]"] ;
68 -> 74 ;
75 [label="gini = 0.0\nsamples = 7\nvalue = [7, 0]"] ;
67 -> 75 ;
76 [label="gini = 0.0\nsamples = 3\nvalue = [0, 3]"] ;
56 -> 76 ;
77 [label="Income <= 98.5\ngini = 0.115\nsamples = 49\nvalue = [46, 3]"] ;
55 -> 77 ;
78 [label="gini = 0.0\nsamples = 22\nvalue = [22, 0]"] ;
77 -> 78 ;
79 [label="Income <= 99.5\ngini = 0.198\nsamples = 27\nvalue = [24, 3]"] ;
77 -> 79 ;
80 [label="Family <= 1.5\ngini = 0.48\nsamples = 5\nvalue = [3, 2]"] ;
79 -> 80 ;
81 [label="CCAvg <= 4.2\ngini = 0.444\nsamples = 3\nvalue = [1, 2]"] ;
80 -> 81 ;
82 [label="gini = 0.0\nsamples = 1\nvalue = [1, 0]"] ;
81 -> 82 ;
83 [label="gini = 0.0\nsamples = 2\nvalue = [0, 2]"] ;
81 -> 83 ;
84 [label="gini = 0.0\nsamples = 2\nvalue = [2, 0]"] ;
80 -> 84 ;
85 [label="Education <= 1.5\ngini = 0.087\nsamples = 22\nvalue = [21, 1]"] ;
79 -> 85 ;
86 [label="gini = 0.0\nsamples = 19\nvalue = [19, 0]"] ;
85 -> 86 ;
87 [label="Education <= 2.5\ngini = 0.444\nsamples = 3\nvalue = [2, 1]"] ;
85 -> 87 ;
88 [label="gini = 0.0\nsamples = 1\nvalue = [0, 1]"] ;
87 -> 88 ;
89 [label="gini = 0.0\nsamples = 2\nvalue = [2, 0]"] ;
87 -> 89 ;
90 [label="CCAvg <= 3.95\ngini = 0.493\nsamples = 34\nvalue = [15, 19]"] ;
54 -> 90 ;
91 [label="CCAvg <= 3.633\ngini = 0.42\nsamples = 20\nvalue = [6, 14]"] ;
90 -> 91 ;
92 [label="Education <= 2.5\ngini = 0.48\nsamples = 15\nvalue = [6, 9]"] ;
91 -> 92 ;
93 [label="CCAvg <= 3.3\ngini = 0.494\nsamples = 9\nvalue = [5, 4]"] ;
92 -> 93 ;
94 [label="Family <= 3.5\ngini = 0.375\nsamples = 4\nvalue = [1, 3]"] ;
93 -> 94 ;
95 [label="gini = 0.0\nsamples = 1\nvalue = [1, 0]"] ;
94 -> 95 ;
96 [label="gini = 0.0\nsamples = 3\nvalue = [0, 3]"] ;
94 -> 96 ;
97 [label="Education <= 1.5\ngini = 0.32\nsamples = 5\nvalue = [4, 1]"] ;
93 -> 97 ;
98 [label="Income <= 93.0\ngini = 0.5\nsamples = 2\nvalue = [1, 1]"] ;
97 -> 98 ;
99 [label="gini = 0.0\nsamples = 1\nvalue = [1, 0]"] ;
98 -> 99 ;
100 [label="gini = 0.0\nsamples = 1\nvalue = [0, 1]"] ;
98 -> 100 ;
101 [label="gini = 0.0\nsamples = 3\nvalue = [3, 0]"] ;
97 -> 101 ;
102 [label="Income <= 84.0\ngini = 0.278\nsamples = 6\nvalue = [1, 5]"] ;
92 -> 102 ;
103 [label="Mortgage <= 94.0\ngini = 0.5\nsamples = 2\nvalue = [1, 1]"] ;
102 -> 103 ;
104 [label="gini = 0.0\nsamples = 1\nvalue = [0, 1]"] ;
103 -> 104 ;
105 [label="gini = 0.0\nsamples = 1\nvalue = [1, 0]"] ;
103 -> 105 ;
106 [label="gini = 0.0\nsamples = 4\nvalue = [0, 4]"] ;
102 -> 106 ;
107 [label="gini = 0.0\nsamples = 5\nvalue = [0, 5]"] ;
91 -> 107 ;
108 [label="Education <= 1.5\ngini = 0.459\nsamples = 14\nvalue = [9, 5]"] ;
90 -> 108 ;
109 [label="CCAvg <= 4.2\ngini = 0.219\nsamples = 8\nvalue = [7, 1]"] ;
108 -> 109 ;
110 [label="gini = 0.0\nsamples = 1\nvalue = [0, 1]"] ;
109 -> 110 ;
111 [label="gini = 0.0\nsamples = 7\nvalue = [7, 0]"] ;
109 -> 111 ;
112 [label="Income <= 93.0\ngini = 0.444\nsamples = 6\nvalue = [2, 4]"] ;
108 -> 112 ;
113 [label="gini = 0.0\nsamples = 2\nvalue = [2, 0]"] ;
112 -> 113 ;
114 [label="gini = 0.0\nsamples = 4\nvalue = [0, 4]"] ;
112 -> 114 ;
115 [label="CCAvg <= 3.617\ngini = 0.391\nsamples = 15\nvalue = [4, 11]"] ;
39 -> 115 ;
116 [label="gini = 0.0\nsamples = 6\nvalue = [0, 6]"] ;
115 -> 116 ;
117 [label="CCAvg <= 4.05\ngini = 0.494\nsamples = 9\nvalue = [4, 5]"] ;
115 -> 117 ;
118 [label="gini = 0.0\nsamples = 2\nvalue = [2, 0]"] ;
117 -> 118 ;
119 [label="Mortgage <= 98.0\ngini = 0.408\nsamples = 7\nvalue = [2, 5]"] ;
117 -> 119 ;
120 [label="gini = 0.0\nsamples = 1\nvalue = [1, 0]"] ;
119 -> 120 ;
121 [label="Income <= 85.0\ngini = 0.278\nsamples = 6\nvalue = [1, 5]"] ;
119 -> 121 ;
122 [label="gini = 0.0\nsamples = 1\nvalue = [1, 0]"] ;
121 -> 122 ;
123 [label="gini = 0.0\nsamples = 5\nvalue = [0, 5]"] ;
121 -> 123 ;
124 [label="Education <= 1.5\ngini = 0.476\nsamples = 731\nvalue = [446, 285]"] ;
0 -> 124 [labeldistance=2.5, labelangle=-45, headlabel="False"] ;
125 [label="Family <= 2.5\ngini = 0.197\nsamples = 487\nvalue = [433, 54]"] ;
124 -> 125 ;
126 [label="gini = 0.0\nsamples = 433\nvalue = [433, 0]"] ;
125 -> 126 ;
127 [label="gini = 0.0\nsamples = 54\nvalue = [0, 54]"] ;
125 -> 127 ;
128 [label="Income <= 116.5\ngini = 0.101\nsamples = 244\nvalue = [13, 231]"] ;
124 -> 128 ;
129 [label="CCAvg <= 1.1\ngini = 0.491\nsamples = 23\nvalue = [13, 10]"] ;
128 -> 129 ;
130 [label="gini = 0.0\nsamples = 7\nvalue = [7, 0]"] ;
129 -> 130 ;
131 [label="Mortgage <= 94.5\ngini = 0.469\nsamples = 16\nvalue = [6, 10]"] ;
129 -> 131 ;
132 [label="Income <= 114.5\ngini = 0.408\nsamples = 14\nvalue = [4, 10]"] ;
131 -> 132 ;
133 [label="Family <= 1.5\ngini = 0.5\nsamples = 6\nvalue = [3, 3]"] ;
132 -> 133 ;
134 [label="gini = 0.0\nsamples = 2\nvalue = [0, 2]"] ;
133 -> 134 ;
135 [label="CCAvg <= 3.9\ngini = 0.375\nsamples = 4\nvalue = [3, 1]"] ;
133 -> 135 ;
136 [label="gini = 0.0\nsamples = 3\nvalue = [3, 0]"] ;
135 -> 136 ;
137 [label="gini = 0.0\nsamples = 1\nvalue = [0, 1]"] ;
135 -> 137 ;
138 [label="CCAvg <= 3.25\ngini = 0.219\nsamples = 8\nvalue = [1, 7]"] ;
132 -> 138 ;
139 [label="gini = 0.0\nsamples = 4\nvalue = [0, 4]"] ;
138 -> 139 ;
140 [label="CCAvg <= 3.6\ngini = 0.375\nsamples = 4\nvalue = [1, 3]"] ;
138 -> 140 ;
141 [label="gini = 0.0\nsamples = 1\nvalue = [1, 0]"] ;
140 -> 141 ;
142 [label="gini = 0.0\nsamples = 3\nvalue = [0, 3]"] ;
140 -> 142 ;
143 [label="gini = 0.0\nsamples = 2\nvalue = [2, 0]"] ;
131 -> 143 ;
144 [label="gini = 0.0\nsamples = 221\nvalue = [0, 221]"] ;
128 -> 144 ;
}